digraph Tree {
node [shape=box, fontname="helvetica"] ;
edge [fontname="helvetica"] ;
0 [label="grocery_food <= 15.835\nsquared_error = 0.484\nsamples = 2100\nvalue = 1.682"] ;
1 [label="tobacco <= 161.94\nsquared_error = 1.233\nsamples = 371\nvalue = 2.084"] ;
0 -> 1 [labeldistance=2.5, labelangle=45, headlabel="True"] ;
3 [label="squared_error = 0.673\nsamples = 293\nvalue = 1.803"] ;
1 -> 3 ;
4 [label="grocery_food <= 2.775\nsquared_error = 1.925\nsamples = 78\nvalue = 3.14"] ;
1 -> 4 ;
9 [label="squared_error = 3.976\nsamples = 10\nvalue = 4.932"] ;
4 -> 9 ;
10 [label="total_quantity <= 225.5\nsquared_error = 1.082\nsamples = 68\nvalue = 2.876"] ;
4 -> 10 ;
11 [label="squared_error = 1.066\nsamples = 23\nvalue = 3.786"] ;
10 -> 11 ;
12 [label="squared_error = 0.451\nsamples = 45\nvalue = 2.411"] ;
10 -> 12 ;
2 [label="total_spend <= 727.675\nsquared_error = 0.281\nsamples = 1729\nvalue = 1.595"] ;
0 -> 2 [labeldistance=2.5, labelangle=-45, headlabel="False"] ;
5 [label="squared_error = 0.14\nsamples = 895\nvalue = 1.436"] ;
2 -> 5 ;
6 [label="total_quantity <= 494.5\nsquared_error = 0.375\nsamples = 834\nvalue = 1.767"] ;
2 -> 6 ;
7 [label="squared_error = 0.571\nsamples = 71\nvalue = 2.74"] ;
6 -> 7 ;
8 [label="total_quantity <= 696.5\nsquared_error = 0.261\nsamples = 763\nvalue = 1.676"] ;
6 -> 8 ;
13 [label="total_spend <= 1050.925\nsquared_error = 0.322\nsamples = 194\nvalue = 1.913"] ;
8 -> 13 ;
15 [label="squared_error = 0.078\nsamples = 158\nvalue = 1.726"] ;
13 -> 15 ;
16 [label="squared_error = 0.571\nsamples = 36\nvalue = 2.731"] ;
13 -> 16 ;
14 [label="total_spend <= 1611.28\nsquared_error = 0.214\nsamples = 569\nvalue = 1.596"] ;
8 -> 14 ;
17 [label="squared_error = 0.104\nsamples = 411\nvalue = 1.462"] ;
14 -> 17 ;
18 [label="total_quantity <= 1090.0\nsquared_error = 0.332\nsamples = 158\nvalue = 1.945"] ;
14 -> 18 ;
19 [label="squared_error = 0.302\nsamples = 41\nvalue = 2.598"] ;
18 -> 19 ;
20 [label="squared_error = 0.14\nsamples = 117\nvalue = 1.716"] ;
18 -> 20 ;
}